{
  "W": [
    [
      0.8701020305510478,
      0.6798159413898691,
      -0.10874238453192055,
      -0.439555699080869,
      -0.37609271381220394,
      -0.32393013436689944,
      -0.08147409732787127,
      0.05206225936564354,
      -0.09930176950352443,
      -0.0031347774732587846,
      0.07608604639678326,
      0.8712866492217763
    ],
    [
      1.1402332042226961,
      -0.2103092131545831,
      -0.44238661606285656,
      0.7865732839182168,
      0.6232256313942028,
      -0.07549689612437857,
      -0.019894049113182054,
      0.002630988382637006,
      -0.052569145010823326,
      0.08538801699766385,
      -0.03255918066789343,
      0.8376798728058742
    ],
    [
      -0.5149705685309874,
      -0.49375491004406175,
      -0.5787740872302788,
      -0.5753958290108359,
      -0.5814774007299952,
      0.055833805717876966,
      -0.45197333488046415,
      0.08604763345952154,
      0.09562413844589743,
      -0.0555828155925209,
      0.044358108471646424,
      -0.49151424517465964
    ],
    [
      -0.26473958475985054,
      0.7388847263289819,
      0.7477687902447189,
      -0.10892725027236236,
      0.11690840535256189,
      -0.6994734816955372,
      -0.10499227016618955,
      0.07575476563044031,
      0.08815212104854322,
      0.004793293879140695,
      -0.010779797702986982,
      -0.2988284245132378
    ],
    [
      0.21340699771397528,
      0.4882780490536144,
      0.43952187453240754,
      -0.18941589361781042,
      0.4251152214567737,
      0.8927229446620218,
      0.6478638346401141,
      -0.09094686541318969,
      0.07745715190249058,
      0.016413875412840118,
      0.03713225408093565,
      -0.3391502156988819
    ],
    [
      0.8089024837148587,
      -0.030660774976460088,
      -0.2473256463561169,
      0.46295356067222104,
      0.5767677608947693,
      -0.05613553810903164,
      0.657508586540915,
      -0.09199265645937481,
      0.06142836780667282,
      -0.012738128557132605,
      0.06748949131016335,
      0.7409694994488174
    ],
    [
      -0.5086199311297541,
      -0.4878271947545577,
      -0.5526643343012676,
      -0.5483798820312658,
      -0.5723726448199511,
      0.008721635890340088,
      -0.4700104141371467,
      -0.01805319223673056,
      -0.04906892522976203,
      -0.0952157041829354,
      -0.08441350989996939,
      -0.48031206836139334
    ],
    [
      -1.7222248797948874,
      -0.547107295628462,
      0.6658726046274948,
      0.5397719740846781,
      -0.29113351759588474,
      0.33498627986808605,
      -0.20683721888491752,
      -0.04425527535504517,
      0.024509066194670498,
      0.0016204503633709955,
      0.05186874426036828,
      -0.7608832783775713
    ]
  ],
  "bias": [
    0.4271050326002349,
    0.0011516491768303813,
    -0.9809559433780065,
    -0.09580605219482075,
    0.718281641799335,
    0.5189941360444343,
    -1.0171922773145616,
    0.42842181326655765
  ],
  "models": [
    "DS-V4",
    "Qwen3-235B",
    "GLM-4+",
    "Groq-Llama",
    "Kimi",
    "GLM-4",
    "QWEN",
    "DS-Think"
  ],
  "features": 12
}