{
  "W": [
    [
      0.05661713369248908,
      -0.21612099765725865,
      -0.19908415327210469,
      -0.1467682242667936,
      0.06669289652609514,
      -0.0870831615722,
      0.08773728501536185,
      0.0064439213880242985,
      0.08027698293577193,
      -0.005849456971047842,
      0.09289544288111765,
      0.02260334984320589
    ],
    [
      0.06214419453384354,
      -0.13600177524702836,
      -0.2045021074859635,
      -0.19355230267473916,
      -0.001967135840003853,
      -0.03934761073880551,
      0.033902615005775794,
      -0.0394194441289925,
      0.06982114706739836,
      -0.020712636083645417,
      -0.037877401044232255,
      0.0077934406649648735
    ],
    [
      0.04552226189522213,
      -0.17765992732283054,
      -0.2531947847315446,
      -0.12904757085232513,
      -0.045038304230016785,
      -0.1424463529774462,
      0.02206484901736068,
      -0.007070640660727753,
      -0.017906919860769227,
      -0.05688270309382659,
      -0.0885382325455316,
      0.05109599999223022
    ],
    [
      0.0057697483510917025,
      -0.1633641645254769,
      -0.22118470180148794,
      -0.0902885547388076,
      0.011235708367899028,
      -0.058633726515293035,
      -0.017923605214906213,
      -0.09769158291194135,
      0.005099367410951738,
      0.02308968242031173,
      0.02801652613493605,
      -0.055573734162373524
    ],
    [
      0.012431495565624132,
      1.2130275155507875,
      0.8490669422884506,
      -0.19188515891146948,
      0.030744250854337574,
      -0.08437072566561458,
      0.0191371627623476,
      0.013421872918174496,
      -0.0010190280561295229,
      0.07779463669385167,
      -0.06993156331687177,
      -0.0433608534184186
    ],
    [
      -0.07422349783775356,
      -0.2053827862863411,
      -0.25063468458942717,
      -0.18574546035324835,
      0.09816401040483089,
      -0.10578014237331496,
      -0.073610967660935,
      0.03613759918928722,
      0.09803129387226203,
      0.0243427803899805,
      -0.012306353704420528,
      0.007067660161293829
    ],
    [
      -0.04345181820392872,
      -0.16157487387473565,
      -0.23972998127791806,
      -0.09043350034341106,
      0.08476553524051339,
      -0.008616033819581315,
      -0.03970954962166937,
      0.015192279780201212,
      -0.060842519611482265,
      0.04241502347173154,
      -0.09503979091429247,
      -0.015912935744881465
    ],
    [
      -0.059957165439592425,
      -0.2157690215756205,
      0.6804675887117473,
      1.0516627370358402,
      -0.06025683461860707,
      0.39477618598576064,
      0.035251567128428585,
      -0.062003542857373285,
      0.09286539093500529,
      0.07779114823958538,
      0.08611238200124896,
      -0.03199054865198146
    ]
  ],
  "bias": [
    -0.16264208115695744,
    -0.17327317242999385,
    -0.1476233729804953,
    -0.17426681427644725,
    0.6685154440940987,
    -0.13767026425020953,
    -0.17298264755200762,
    0.29994290855201133
  ],
  "models": [
    "DS-V4",
    "Qwen3-235B",
    "GLM-4+",
    "Groq-Llama",
    "Kimi",
    "GLM-4",
    "QWEN",
    "DS-Think"
  ],
  "features": 12
}